-2.377904802560806274e-01 5.536662936210632324e-01 -1.078299522399902344e+00 6.318405866622924805e-01 -8.699013590812683105e-01 -8.142797350883483887e-01 -2.761250734329223633e-01 -3.304014205932617188e-01 3.081635236740112305e-01 -4.025681316852569580e-02 5.408433675765991211e-01 -7.181265950202941895e-01 -6.969867348670959473e-01 -6.016466021537780762e-01 -4.845047295093536377e-01 5.513049364089965820e-01 6.159024834632873535e-01 -1.422609090805053711e-01 2.319888621568679810e-01 -7.162545919418334961e-01 1.324884742498397827e-01 6.312111616134643555e-01 3.444145023822784424e-01 -8.397390842437744141e-01 4.852400124073028564e-01
4.840023815631866455e-01 -9.432380795478820801e-01 8.071793317794799805e-01 -7.150199413299560547e-01 -4.020605608820915222e-02 -7.737609148025512695e-01 5.271476507186889648e-01 -9.400956034660339355e-01 8.877672255039215088e-02 -1.434337347745895386e-01 1.433019876480102539e+00 6.270796060562133789e-02 -8.493579626083374023e-01 3.317112326622009277e-01 4.183668494224548340e-01 -5.561479330062866211e-01 -1.437873840332031250e-01 4.098496735095977783e-01 6.715497374534606934e-01 4.574362337589263916e-01 1.165987133979797363e+00 -3.557277321815490723e-01 -9.827654361724853516e-01 3.027272522449493408e-01 -6.643827557563781738e-01
2.798346579074859619e-01 4.990698397159576416e-02 -2.478509694337844849e-01 -6.024796366691589355e-01 7.464453577995300293e-02 -3.927443325519561768e-01 -1.801786571741104126e-01 4.111442267894744873e-01 5.660344362258911133e-01 -3.778194785118103027e-01 -4.662587940692901611e-01 6.136606335639953613e-01 2.672267854213714600e-01 -9.641145169734954834e-02 9.147436618804931641e-01 -1.941628694534301758e+00 9.007028341293334961e-01 -1.293321251869201660e-01 -6.844352483749389648e-01 -7.810074687004089355e-01 -4.052036702632904053e-01 3.838924467563629150e-01 3.618322610855102539e-01 4.628591835498809814e-01 -1.615414172410964966e-01
3.825044035911560059e-01 -7.163525819778442383e-01 -5.419670343399047852e-01 9.128402173519134521e-02 7.445752620697021484e-01 9.439046680927276611e-02 -6.021236181259155273e-01 3.259676694869995117e-01 -3.499538302421569824e-01 2.704715430736541748e-01 -1.193920671939849854e-01 -6.475862860679626465e-01 4.324228689074516296e-02 5.877984166145324707e-01 -3.866536319255828857e-01 -1.626712232828140259e-01 7.768044620752334595e-02 -1.567957162857055664e+00 4.478166997432708740e-01 -1.161363363265991211e+00 9.920725822448730469e-01 1.215123012661933899e-01 7.449559122323989868e-02 4.469372332096099854e-01 -5.576775670051574707e-01
-5.093420743942260742e-01 -7.160158753395080566e-01 4.980141520500183105e-01 -1.568286567926406860e-01 -9.988371133804321289e-01 4.427911341190338135e-01 -3.493125438690185547e-01 2.103275805711746216e-01 3.064271509647369385e-01 4.594996869564056396e-01 -1.176127552986145020e+00 1.105733066797256470e-01 6.482281684875488281e-01 -5.917875170707702637e-01 -3.423557579517364502e-01 -6.034524440765380859e-01 -1.456109166145324707e+00 9.311720728874206543e-02 -2.549667060375213623e-01 3.796190917491912842e-01 4.588831365108489990e-01 8.047845363616943359e-01 -7.128689289093017578e-01 -5.073544979095458984e-01 4.962957501411437988e-01
-1.028715252876281738e+00 4.605113267898559570e-01 -1.644174456596374512e-01 5.228427052497863770e-01 1.069873213768005371e+00 -3.153694421052932739e-02 -1.115766525268554688e+00 -1.479218602180480957e-01 -1.187768697738647461e+00 -9.854432940483093262e-01 9.899258613586425781e-01 1.469879001379013062e-01 -3.885336592793464661e-02 -2.371640801429748535e-01 -4.663838446140289307e-01 1.132049918174743652e+00 2.621318399906158447e-01 -1.293565034866333008e-01 3.540273606777191162e-01 9.015964269638061523e-01 -8.264102935791015625e-01 -1.725812405347824097e-01 -3.530731797218322754e-01 2.504701912403106689e-01 2.031700015068054199e-01
-6.952880024909973145e-01 4.970911741256713867e-01 -9.734676480293273926e-01 -6.848730444908142090e-01 -8.083783984184265137e-01 -1.110233426094055176e+00 8.918331861495971680e-01 1.562303453683853149e-01 6.616399288177490234e-01 6.318998932838439941e-01 1.999540030956268311e-01 7.717251777648925781e-01 -4.729739204049110413e-02 -6.841946244239807129e-01 -2.494526952505111694e-01 5.509001612663269043e-01 -2.483163475990295410e-01 6.337040066719055176e-01 3.707231879234313965e-01 5.587979555130004883e-01 3.030896484851837158e-01 7.301223278045654297e-02 -3.316442668437957764e-01 -5.476636886596679688e-01 -1.491102427244186401e-01
6.366617679595947266e-01 -6.106550693511962891e-01 -3.621784448623657227e-01 5.936818122863769531e-01 -1.343503236770629883e+00 2.551791667938232422e-01 9.192694425582885742e-01 2.289864271879196167e-01 -7.210803627967834473e-01 -6.698563694953918457e-01 1.092529535293579102e+00 -1.188423395156860352e+00 1.093186810612678528e-01 -3.836643695831298828e-01 8.950884342193603516e-01 -8.155201077461242676e-01 1.519417911767959595e-01 -2.191030830144882202e-01 -7.129974961280822754e-01 -6.671341061592102051e-01 5.612592697143554688e-01 -5.299431085586547852e-01 -9.037787914276123047e-01 5.814467072486877441e-01 6.829553842544555664e-01
4.310036003589630127e-01 8.382083177566528320e-01 1.235369518399238586e-01 -4.689484834671020508e-01 -4.528174400329589844e-01 -2.813429832458496094e-01 -7.571845054626464844e-01 -1.026002883911132812e+00 -8.372830748558044434e-01 3.595730960369110107e-01 -1.436331629753112793e+00 2.687412798404693604e-01 1.578812673687934875e-02 4.751520454883575439e-01 -9.223231077194213867e-01 1.955391317605972290e-01 -4.975490272045135498e-01 -1.148604631423950195e+00 4.310248792171478271e-01 5.793449878692626953e-01 -1.332252740859985352e+00 -2.715079784393310547e-01 4.241677820682525635e-01 -2.857618629932403564e-01 3.334954380989074707e-01
3.615657985210418701e-02 -3.857355117797851562e-01 1.469518095254898071e-01 6.871170401573181152e-01 1.060141623020172119e-01 4.347627460956573486e-01 -8.484133332967758179e-02 -1.877177357673645020e+00 6.301069259643554688e-01 5.504365563392639160e-01 -2.650377750396728516e-01 3.118713200092315674e-01 -7.098808884620666504e-02 5.520071983337402344e-01 -1.520442485809326172e+00 4.735119938850402832e-01 -5.582177042961120605e-01 1.861640512943267822e-01 -7.422141432762145996e-01 -7.965416312217712402e-01 -4.070526063442230225e-01 -1.076020717620849609e+00 -4.260963797569274902e-01 -1.142687082290649414e+00 5.026811957359313965e-01
